{"type":"NeuralNetwork","sizes":[4,4,5,1],"layers":[{"weights":[],"biases":[]},{"weights":[[-8.44979190826416,8.678675651550293,3.3305070400238037,-3.1054458618164062],[-1.2256662845611572,10.113114356994629,3.8966071605682373,-10.566582679748535],[0.030844662338495255,6.321993827819824,-3.673532485961914,-4.840738296508789],[-1.8154239654541016,1.484659194946289,2.320707082748413,-4.967508792877197]],"biases":[-1.7660170793533325,2.6655662059783936,1.2438223361968994,0.17962117493152618]},{"weights":[[1.052073359489441,-10.288416862487793,2.8701860904693604,-1.237480878829956],[-2.4634358882904053,-3.0097391605377197,0.4576541483402252,-0.9065717458724976],[-1.521411418914795,0.990838885307312,-0.5651189088821411,1.3863037824630737],[-8.68497371673584,1.4264147281646729,7.548860549926758,-0.4404764175415039],[-6.795032501220703,14.249847412109375,4.6032609939575195,-7.280624866485596]],"biases":[2.0477864742279053,-1.7592180967330933,-1.476854920387268,0.77967369556427,-1.4535516500473022]},{"weights":[[6.130255222320557,0.6218153834342957,-1.5486626625061035,6.313591957092285,7.986128330230713]],"biases":[-6.829317569732666]}],"inputLookup":null,"inputLookupLength":0,"outputLookup":null,"outputLookupLength":0,"options":{"inputSize":0,"outputSize":0,"binaryThresh":0.5,"hiddenLayers":[4,5],"activation":"sigmoid"},"trainOpts":{"activation":"sigmoid","iterations":20000,"errorThresh":0.005,"log":false,"logPeriod":10,"leakyReluAlpha":0.01,"learningRate":0.3,"momentum":0.1,"callbackPeriod":10,"timeout":"Infinity","beta1":0.9,"beta2":0.999,"epsilon":1e-8}}